svm_type c_svc
kernel_type rbf
gamma 0.25
nr_class 2
total_sv 199
rho 1.28361318044135
label 1 -1
nr_sv 100 99
SV
1 1:0.50019997 2:0.65556904 3:0.67419359 4:0.71842121 
1 1:0.33599761 2:0.48922439 3:0.75474097 4:0.83152184 
1 1:0.39514488 2:0.4826237 3:0.83795726 4:0.72 
1 1:0.38165037 2:0.41692563 3:0.9286141 4:0.72 
1 1:0.31671773 2:0.2430374 3:0.86801974 4:0.75592895 
1 1:0.38572798 2:0.46228426 3:0.76351848 4:0.79372539 
1 1:0.35673589 2:0.52778058 3:0.82019142 4:0.77696778 
1 1:0.42016831 2:0.41096864 3:0.78881911 4:0.79372539 
1 1:0.26479074 2:0.41975579 3:0.84213673 4:0.84615385 
1 1:0.3548582 2:0.38209909 3:0.85468615 4:0.85349181 
1 1:0.47324013 2:0.33505098 3:0.8418895 4:0.70710678 
1 1:0.32386302 2:0.39537351 3:0.8135832 4:0.85714286 
0.19543755072041744 1:0.40181664 2:0.48685139 3:0.87373236 4:0.78067087 
1 1:0.45832766 2:0.36275359 3:0.78924968 4:0.74672866 
1 1:0.42170041 2:0.34819488 3:0.94261261 4:0.67193684 
1 1:0.41574118 2:0.51047603 3:0.83988007 4:0.77696778 
1 1:0.33299009 2:0.49120938 3:0.85087672 4:0.75592895 
1 1:0.35521867 2:0.27398146 3:0.82696867 4:0.80769231 
1 1:0.41146075 2:0.40248729 3:0.9242989 4:0.73913043 
1 1:0.47391623 2:0.33340894 3:0.89591514 4:0.65217391 
1 1:0.57937241 2:0.64335274 3:0.48550094 4:0.78571429 
1 1:0.44135609 2:0.24720012 3:0.83389716 4:0.70710678 
1 1:0.32119585 2:0.51320024 3:0.8299147 4:0.8824975 
1 1:0.39708175 2:0.50401352 3:0.81129425 4:0.68 
1 1:0.3601689 2:0.46521611 3:0.83239078 4:0.84855529 
1 1:0.36822155 2:0.28365317 3:0.85837255 4:0.82142857 
1 1:0.35449236 2:0.36389963 3:0.86228937 4:0.79372539 
1 1:0.45207254 2:0.34563318 3:0.85078081 4:0.7181325 
1 1:0.33588251 2:0.57033498 3:0.79631304 4:0.85185185 
1 1:0.36582411 2:0.47048956 3:0.93397733 4:0.68 
1 1:0.32117543 2:0.42331189 3:0.85577124 4:0.76752258 
1 1:0.42830213 2:0.54482629 3:0.92785716 4:0.69230769 
1 1:0.50889614 2:0.45620882 3:0.66291334 4:0.72 
1 1:0.41176637 2:0.41046287 3:0.85149237 4:0.7826087 
1 1:0.36285831 2:0.43627451 3:0.79197723 4:0.79372539 
1 1:0.4042784 2:0.49265895 3:0.78632326 4:0.71842121 
1 1:0.44506151 2:0.46162365 3:0.72356094 4:0.76477489 
1 1:0.38578767 2:0.45402354 3:0.86949836 4:0.68033605 
1 1:0.40172281 2:0.32689523 3:0.89950743 4:0.7181325 
1 1:0.4556257 2:0.25278513 3:0.86192796 4:0.69696278 
1 1:0.35758402 2:0.31264445 3:0.91430536 4:0.73568294 
1 1:0.4101893 2:0.30696685 3:0.9329457 4:0.75 
1 1:0.42726198 2:0.41705293 3:0.90583329 4:0.69230769 
1 1:0.41343376 2:0.44276459 3:0.88630836 4:0.75592895 
1 1:0.36482924 2:0.50588459 3:0.94693794 4:0.76 
1 1:0.38029118 2:0.58977584 3:0.89518883 4:0.73607474 
1 1:0.45470065 2:0.36992174 3:0.84906522 4:0.61339562 
1 1:0.41666542 2:0.23752232 3:0.91327653 4:0.75592895 
1 1:0.38737911 2:0.35997308 3:0.85662101 4:0.75592895 
1 1:0.317934 2:0.3925598 3:0.68166001 4:0.8 
1 1:0.37757561 2:0.29559904 3:0.81611163 4:0.73607474 
1 1:0.38763707 2:0.60514835 3:0.91725221 4:0.7181325 
1 1:0.38713026 2:0.34578601 3:0.71496826 4:0.71842121 
1 1:0.41023156 2:0.23885186 3:0.86041868 4:0.79372539 
1 1:0.3542531 2:0.46847995 3:0.86058149 4:0.7037037 
1 1:0.36531003 2:0.40716062 3:0.83455976 4:0.73913043 
1 1:0.28432948 2:0.40417379 3:0.79202426 4:0.7826087 
1 1:0.33701039 2:0.47804559 3:0.80425798 4:0.84 
1 1:0.35295104 2:0.44741901 3:0.81286912 4:0.7181325 
1 1:0.45598747 2:0.1939783 3:0.93543553 4:0.68 
1 1:0.28667999 2:0.38883156 3:0.91258538 4:0.72835704 
0.12748027941147158 1:0.37939097 2:0.21421029 3:0.92304325 4:0.84 
1 1:0.31263033 2:0.31009615 3:0.78232264 4:0.79372539 
1 1:0.35056477 2:0.22111361 3:0.88113138 4:0.78571429 
1 1:0.30229088 2:0.33935556 3:0.84582892 4:0.8 
1 1:0.33760429 2:0.31609801 3:0.81090082 4:0.83152184 
1 1:0.34473085 2:0.60712477 3:0.82913406 4:0.72 
0.9229245759365946 1:0.40059028 2:0.70457072 3:0.81939839 4:0.80119274 
1 1:0.32597946 2:0.42892696 3:0.88230751 4:0.86931829 
1 1:0.44515839 2:0.53261859 3:0.70642956 4:0.76923077 
1 1:0.45789151 2:0.37732433 3:0.80090708 4:0.72 
1 1:0.29009273 2:0.3578662 3:0.9066677 4:0.73607474 
1 1:0.37799304 2:0.6014177 3:0.90112012 4:0.75592895 
1 1:0.30124182 2:0.40301665 3:0.88902122 4:0.77440309 
1 1:0.44793288 2:0.36601223 3:0.85094597 4:0.6951817 
1 1:0.47574875 2:0.66246374 3:0.67070272 4:0.61065803 
1 1:0.40158877 2:0.40668168 3:0.82666372 4:0.7181325 
1 1:0.35621288 2:0.57356745 3:0.88569297 4:0.60869565 
1 1:0.4169383 2:0.47869605 3:0.97480559 4:0.68033605 
1 1:0.33748061 2:0.48398427 3:0.80378067 4:0.80119274 
1 1:0.40977707 2:0.47257774 3:0.87317118 4:0.73568294 
1 1:0.43692087 2:0.32332846 3:0.8955651 4:0.72 
1 1:0.4029033 2:0.41557462 3:0.89068808 4:0.72 
1 1:0.36785785 2:0.45780066 3:0.84683749 4:0.72835704 
1 1:0.28710391 2:0.46064282 3:0.75773317 4:0.79310345 
1 1:0.39491497 2:0.40850175 3:0.64508614 4:0.80813762 
1 1:0.37517013 2:0.50455259 3:0.87911415 4:0.7856742 
1 1:0.40148457 2:0.40436545 3:0.92017052 4:0.73076923 
1 1:0.3354953 2:0.40216706 3:0.93200926 4:0.83870968 
1 1:0.39536889 2:0.31805065 3:0.90776163 4:0.79310345 
1 1:0.28919547 2:0.41380046 3:0.89210085 4:0.85349181 
1 1:0.42628604 2:0.67730572 3:0.81983416 4:0.62853936 
1 1:0.34583932 2:0.43489337 3:0.87529902 4:0.76477489 
1 1:0.42176006 2:0.23862469 3:0.88421032 4:0.72804401 
1 1:0.34768176 2:0.4102707 3:0.74476819 4:0.9 
1 1:0.37943582 2:0.37270201 3:0.66265541 4:0.83333333 
1 1:0.43771736 2:0.25602992 3:0.88422842 4:0.74074074 
1 1:0.26160149 2:0.45105009 3:0.84622074 4:0.75 
1 1:0.35728008 2:0.5318672 3:0.88580132 4:0.77300121 
1 1:0.35588593 2:0.36272402 3:0.91494422 4:0.77300121 
-1 1:1 2:1 3:0.99999945 4:1 
-1 1:1 2:1 3:0.99999999 4:1 
-1 1:1 2:1 3:0.99999999 4:1 
-1 1:0.34531445 2:0.52045962 3:0.82359833 4:0.71428571 
-1 1:0.34531445 2:0.54083348 3:0.82344417 4:0.61904762 
-1 1:0.27179854 2:0.48287228 3:0.62747415 4:0.7130241 
-1 1:0.20038612 2:0.29302356 3:0.85253127 4:0.63960215 
-1 1:0.2483889 2:0.45466344 3:0.85856282 4:0.58333333 
-1 1:0.22938628 2:0.54266921 3:0.69568201 4:0.66666667 
-1 1:0.24250992 2:0.21271055 3:0.7632497 4:0.66666667 
-1 1:0.28357566 2:0.32160547 3:0.84804141 4:0.47058824 
-1 1:0.28275277 2:0.50305516 3:0.88640061 4:0.66666667 
-1 1:0.3361317 2:0.20408881 3:0.82283337 4:0.77151675 
-1 1:0.14995538 2:0.36492521 3:0.83483915 4:0.81649658 
-1 1:0.15686957 2:0.37691831 3:0.63761015 4:0.8 
-1 1:0.13436879 2:0.73701051 3:0.60720584 4:0.81649658 
-1 1:0.28315525 2:0.48144623 3:0.67410081 4:0.57735027 
-1 1:0.27530107 2:0.46771223 3:0.86682176 4:0.45454545 
-1 1:0.2553531 2:0.43786907 3:0.7814139 4:0.72727273 
-1 1:0.16536151 2:0.39165333 3:0.71189044 4:0.77459667 
-1 1:0.3021592 2:0.31719123 3:0.81156031 4:0.52623481 
-1 1:0.22580974 2:0.30499312 3:0.66596814 4:0.70164642 
-1 1:0.36993178 2:0.23167116 3:0.66272263 4:0.68853037 
-1 1:0.30182515 2:0.34515768 3:0.80550986 4:0.59628479 
-1 1:0.18013276 2:0.67546182 3:0.89386637 4:0.63960215 
-1 1:0.34431349 2:0.45939109 3:0.75154051 4:0.42857143 
-1 1:0.2886731 2:0.4983283 3:0.79321443 4:0.68853037 
-1 1:0.091903709 2:0.3004971 3:0.75723613 4:0.81649658 
-1 1:0.29840783 2:0.66335048 3:0.80991462 4:0.42640143 
-1 1:0.079328502 2:0.26611726 3:0.77839292 4:1 
-1 1:0.32713561 2:0.35521861 3:0.94223472 4:0.57142857 
-1 1:0.23601511 2:0.24855707 3:0.84544041 4:0.63245553 
-1 1:0.074349844 2:0.15740424 3:0.74276552 4:1 
-1 1:0.33674591 2:0.31352817 3:0.72372288 4:0.44539933 
-1 1:0.32466706 2:0.64436916 3:0.80036526 4:0.57735027 
-1 1:0.22119 2:0.2892462 3:0.68959693 4:0.66943868 
-1 1:0.35280779 2:0.26711982 3:0.83762237 4:0.43852901 
-1 1:0.26548314 2:0.31197141 3:0.86940974 4:0.55555556 
-1 1:0.13354383 2:0.29090909 3:0.76947859 4:0.8 
-1 1:0.21015547 2:0.52813569 3:0.90573234 4:0.72524067 
-1 1:0.31421561 2:0.42035219 3:0.68110045 4:0.56694671 
-1 1:0.058387029 2:0.33080838 3:0.72221138 4:0.9486833 
-1 1:0.26311865 2:0.48827189 3:0.72206233 4:0.625 
-1 1:0.26628321 2:0.66457274 3:0.7793098 4:0.81649658 
-1 1:0.13805286 2:0.22607744 3:0.74035275 4:0.8 
-1 1:0.3169187 2:0.36353195 3:0.41207214 4:0.73333333 
-1 1:0.23334211 2:0.22893977 3:0.56163988 4:0.86666667 
-1 1:0.15986009 2:0.27026557 3:0.91454206 4:0.6 
-1 1:0.27555127 2:0.56763216 3:0.69629668 4:0.7130241 
-1 1:0.34503579 2:0.35940579 3:0.90190794 4:0.53846154 
-1 1:0.31345494 2:0.68554096 3:0.71627221 4:0.62403772 
-1 1:0.2938716 2:0.35919749 3:0.93224777 4:0.5 
-1 1:0.20324753 2:0.42321066 3:0.73538402 4:0.71151247 
-1 1:0.37462142 2:0.32488377 3:0.67246053 4:0.76923077 
-1 1:0.077100941 2:0.2874119 3:0.71994576 4:1 
-1 1:0.33655706 2:0.34156134 3:0.82295828 4:0.48536267 
-1 1:0.23971718 2:0.45318291 3:0.75125461 4:0.57142857 
-1 1:0.15604268 2:0.64180348 3:0.77841834 4:0.71713717 
-1 1:0.09981174 2:0.53227545 3:0.7431765 4:0.8 
-1 1:0.26041439 2:0.40588772 3:0.83777559 4:0.52174919 
-1 1:0.41867574 2:0.35723083 3:0.77850508 4:0.80295507 
-1 1:0.34311253 2:0.20867138 3:0.82942949 4:0.48536267 
-1 1:0.085408841 2:0.36329588 3:0.57242017 4:1 
-1 1:0.33643443 2:0.550895 3:0.85829646 4:0.70502399 
-1 1:0.3431325 2:0.47291064 3:0.81304882 4:0.70164642 
-1 1:0.42425769 2:0.38941217 3:0.9461439 4:0.61237244 
-1 1:0.35068339 2:0.37474297 3:0.89256356 4:0.40291148 
-1 1:0.19373875 2:0.60690946 3:0.83655691 4:0.63960215 
-1 1:0.23926285 2:0.31700444 3:0.86323754 4:0.57142857 
-1 1:0.53615729 2:0.29170895 3:0.79708569 4:0.65079137 
-1 1:0.13645775 2:0.64276479 3:0.78623871 4:0.75 
-1 1:0.26441008 2:0.46817141 3:0.85237781 4:0.47434165 
-1 1:0.28695029 2:0.40375751 3:0.845904 4:0.52174919 
-1 1:0.093076232 2:0.52376208 3:0.72118028 4:0.8 
-0.56082272658501398 1:0.12963538 2:0.33055596 3:0.85409609 4:0.67082039 
-0.68501967948346953 1:0.058297869 2:0.24467235 3:0.61919313 4:1 
-1 1:0.24627755 2:0.58176425 3:0.73426458 4:0.59628479 
-1 1:0.25241212 2:0.55878597 3:0.85304715 4:0.52174919 
-1 1:0.069289809 2:0.26470046 3:0.7273291 4:1 
-1 1:0.25648523 2:0.28056867 3:0.79180846 4:0.59628479 
-1 1:0.46769714 2:0.28859338 3:0.72563478 4:0.51856298 
-1 1:0.32655293 2:0.36300241 3:0.8530643 4:0.5 
-1 1:0.2964686 2:0.39471436 3:0.5697548 4:0.63628476 
-1 1:0.22924506 2:0.18179685 3:0.76625011 4:0.7130241 
-1 1:0.20269499 2:0.31381509 3:0.90802708 4:0.63245553 
-1 1:0.27123914 2:0.21295523 3:0.66138945 4:0.72524067 
-1 1:0.36903506 2:0.27748866 3:0.8625699 4:0.81989159 
-1 1:0.17822181 2:0.35182282 3:0.83895634 4:0.78935222 
-1 1:0.26725855 2:0.1651785 3:0.8773808 4:0.67082039 
-1 1:0.33437405 2:0.29004335 3:0.83525895 4:0.7800135 
-1 1:0.075880864 2:0.18901599 3:0.79029248 4:1 
-1 1:0.20457509 2:0.28818142 3:0.78966111 4:0.69156407 
-1 1:0.38140322 2:0.45163367 3:0.92153496 4:0.84266484 
-1 1:0.30466352 2:0.36608073 3:0.75261913 4:0.48112522 
-1 1:0.42114572 2:0.50690826 3:0.81316801 4:0.5 
-1 1:0.18171756 2:0.45132955 3:0.78317481 4:0.7130241 
-1 1:0.19824453 2:0.36466161 3:0.81026787 4:0.83666003 
-1 1:0.22514248 2:0.34296331 3:0.86755064 4:0.54545455 
-1 1:0.11607173 2:0.37435922 3:0.77629964 4:1 
